{
  "axis_types": [
    ["z", "y", "y", "y", "z", "y"]
  ],
  "base_link_motion_bounds": [
    [0, 0],
    [0, 0],
    [0, 0]
  ],
  "ee_fixed_joints": ["ee_fixed_joint"],
  "static_environment": {
    "cuboids": [],
    "spheres": [{
      "name": "Gripper",
      "radius": 0.07,
      "tx": 0.0,
      "ty": 0.0,
      "tz": 0.1,
      "is_dynamic": true,
      "coordinate_frame": "wrist_3_joint"
    }],
    "pcs": []
  },
  "fixed_frame": "base_link",
  "modes": [{
    "name": "default",
    "weights": [30, 20, 0.0, 1.0, 2.0, 0.0]
  }],
  "goals": [{
    "name": "default",
    "values": [
      {"vector": [0.4570000000008324, 0.223, 0.06700000000223773]}, 
      {"quaternion": [3.4624111877007495e-12, 0.7071067811848163, 0.7071067811882787, 3.462411187683795e-12]},
      {"vector": [0.4570000000008324, 0.123, 0.08700000000223773]},
      {},{},{}
    ]
  }],
  "joint_limits": [
    [-6.28318530718, 6.28318530718],
    [-6.28318530718, 6.28318530718],
    [-3.14159265359, 3.14159265359],
    [-6.28318530718, 6.28318530718],
    [-6.28318530718, 6.28318530718],
    [-6.28318530718, 6.28318530718]
  ],
  "joint_names": [
    ["shoulder_pan_joint", "shoulder_lift_joint", "elbow_joint", "wrist_1_joint", "wrist_2_joint", "wrist_3_joint"]
  ],
  "joint_ordering": ["shoulder_pan_joint", "shoulder_lift_joint", "elbow_joint", "wrist_1_joint", "wrist_2_joint", "wrist_3_joint"],
  "joint_types": [
    ["revolute", "revolute", "revolute", "revolute", "revolute", "revolute"]
  ],
  "mode_control": "absolute",
  "mode_environment": "ECAA",
  "nn_jointpoint": {
    "intercepts": [
      [1.6115565820153774, -0.10718311195961944, 0.04984951246394756, 1.2712080938865074, -0.30704664825364925, -0.1534665342863852, -0.18410372056455657, 1.4653484658725162, 1.6491493317642136, 1.7231334378879237, -0.05929461492355097, 1.7630455525135533, -0.05953754419413662, -0.14838359211107313, 0.05472174698029372],
      [1.437992025161774, -0.02969467249119806, 1.2412312138489894, -0.36683474869097443, 1.5403033453423023, 1.3587083814107013, 1.6409898063930994, -0.04216395129161467, 1.1829003299838143, 1.7345313624127485, -0.32213784132570744, 1.5831708343258848, 1.3793194634691999, 1.508481676902164, -0.018803857968579068],
      [1.6766479435422212, 1.8238987134177858, 1.4305143100384206, -0.35814440037142553, 1.4924103481699498, 1.4089959165010124, -0.30002699110907133, -0.06555449898814075, -0.03553256671951781, -0.12424532358691193, 1.309049969996443, 1.6183974843775066, -0.382785015284577, 1.3224504071508645, -0.40905876047818335],
      [-0.5897262730123707, 1.0938349404026215, 1.02661154357603, 1.2441314809577904, 1.7341419920247882, -0.05030936013952304, -0.23256935673497442, -0.007155504033136347, 1.6229869463622704, 1.564351791653201, 1.7974867705779776, -0.19473263263234258, -0.032147505612424965, 1.3683880606313872, 1.7536762143503724],
      [-0.012528583244734473, 1.7699276442506588, 1.0056874015330286, 1.1488005348673274, 1.6795550837612185, 1.7449433016839322, -0.013950448243716251, -0.44483861069676817, -0.017925679922958602, 1.3989176962066456, -0.05564495486478189, 1.3959871759782174, 0.9031140283783649, 1.2711757750318051, -0.20469192135133127],
      [1.7724358369727962]
    ],
    "coefs": [
      [
        [-1.1303762156569666e-12, 3.2523227793412207e-09, -3.15087190970431e-07, 3.0986686563950133e-06, -4.1070032135378997e-13, 4.245971923711055e-07, 1.5131426151275743e-11, 7.103550494724321e-13, -1.1407100520108677e-07, -8.209607767798383e-07, -2.9385335751924046e-06, 4.6287431217826696e-08, 5.4718848163019954e-08, 5.337217396380896e-08, 2.3613007672268336e-09],
        [1.292493074594678e-10, -1.9588306914249894e-13, -2.1070336124981184e-08, 0.00021137423129538891, -2.2926366083697995e-09, 1.3206446119584293e-07, -2.608776604714022e-10, 1.793253486406678e-12, -2.4869436633704845e-06, -4.1141502615486535e-11, 7.141236055599308e-10, -3.7290629812292455e-06, 4.109523554514642e-10, -7.92609090944564e-12, 8.191174046909321e-05],
        [0.004863144313595676, -1.5019667713582308e-05, 0.00039036497143967987, 0.0035879572988562784, 4.884686094872046e-11, 0.0008297104635378752, 5.385350491311162e-05, 0.004304166936611364, 0.005011488943260479, 0.005303764874606988, 0.0011098702488962278, 0.005465459908356892, -0.0004123088135153272, -6.137768735720161e-08, 0.0006671071264994307],
        [-0.001914514055911455, -8.298372536499122e-06, -0.0022959132910815453, -0.001893038341471271, -1.262733403687887e-11, -0.0016546956307425702, -4.078008761284603e-06, -0.0019131074370776651, -0.0019135174378213599, -0.0019104309185979653, -0.005948627843083028, -0.0019081484797030107, 0.0017220194026624893, 1.5283000409107728e-11, 0.009356923970957814],
        [0.0013575156023306594, 1.3842514648090965e-09, 0.0020368421267201206, 0.0013244949144448463, 9.931340648463105e-06, -0.006167636754872059, -2.9258734470843207e-12, 0.0013471590672586291, 0.0013595218317614011, 0.0013628346377313715, 0.0032294857066383856, 0.0013643113763859148, -0.004120518574978836, 3.151466398679588e-08, -4.3908070431578484e-05],
        [0.004863144313595676, 3.737208235527685e-09, 0.00039036497143967987, 0.0035879572988562784, 4.9814474569331915e-11, 0.0008297104635378752, -2.976804774461566e-10, 0.004304166936611364, 0.005011488943260479, 0.005303764874606988, 0.0011098702488962278, 0.005465459908356892, -0.0004123088135153272, -1.7835683189030206e-12, 0.0006671071264994307],
        [-0.0001404875348830174, 3.3329127701027325e-10, 0.03415493185601816, -0.0001021791230691253, 6.381036343850372e-08, -0.004095138338116779, -5.152504418732348e-09, -0.00012395557803080532, -0.00014479987541942655, -0.00015321031368742906, 0.00880993900737877, -0.0001578097216913223, -0.012040503727485757, -1.751581474681671e-05, -0.03352587059559654],
        [-0.00019006336186075238, -5.097198525245281e-07, 0.009909264306017136, -0.0002474438972884845, 2.4280215777617756e-12, 0.00285099519508223, 4.2494945903156254e-05, -0.00021648846226442187, -0.00018298803740966838, -0.00016913063896725733, -0.0346725801318544, -0.00016154537967413634, 0.036253266551952594, 1.981369572476745e-10, -0.004424038039185625],
        [-0.0008398766495114784, -1.0872204578423928e-06, -0.007846616044036766, -0.0008034825209659553, -9.05266901849961e-09, 0.029843006385647616, -0.0001189566599237937, -0.000823977899398984, -0.0008440602474368493, -0.0008522834446472115, 0.014757360395288079, -0.000856793754170746, 0.013018722820345031, 2.8148150244831025e-08, -0.009389211199015587],
        [-0.0016741466498359555, -3.92965e-319, 0.0910621377031758, -0.0015217557369361916, 1.840214421843334e-12, -0.0026479840780361677, 1.4136453479461561e-08, -0.0016076217884076719, -0.001691620946918228, -0.0017258827892104947, 0.030825907770752826, -0.0017446794024999655, -0.026857079187332072, 1.1350771149220033e-05, -0.090591551000932],
        [-0.0007584741276373299, 1.1463402012538187e-11, 0.026352248855933964, -0.0007973325763135573, 2.7950566582854875e-09, 0.002735980799742164, 1.0913584613379015e-12, -0.0007742067707490849, -0.0007545651560437661, -0.0007471756590917531, -0.09317283947552091, -0.0007432296264158456, 0.09327844619178317, -2.0446070393811708e-11, -0.017546009373155654],
        [0.0012712445474244475, 1.4250970018020874e-07, -0.04205760231278957, 0.0009437732681375878, -2.1535973651214337e-07, 0.09912501841091716, -1.215645350801293e-10, 0.001127709200157172, 0.0013093296455582652, 0.0013843542292530555, 0.04524132329518316, 0.0014258549975241887, 0.04586866027410968, -1.8584897562736093e-13, -0.04352599174324711],
        [-0.0021125653073318035, -7.897161968231934e-12, 0.08780991861763804, -0.001974377702830673, 6.079743712269207e-12, -0.0029495817411276963, 5.644897447929913e-07, -0.0020523036385825693, -0.002128343233576812, -0.0021592308210933685, 0.027791836756475886, -0.002176125686057222, -0.02531097499493947, -9.209804713885455e-12, -0.08576790882211852],
        [-0.0002579577827035916, -4.359525059216811e-08, 0.027366893525670614, -0.0002859219259898335, -0.00010201870392602145, 0.000639126082089126, -6.29e-321, -0.0002687813466029625, -0.0002554044409861747, -0.00025073342429153084, -0.08951946140668754, -0.0002483369355952918, 0.08952425762492248, -1.2276331944436709e-11, -0.017663194109866796],
        [0.0012712445474244475, -4.507572358073093e-06, -0.04205760231278957, 0.0009437732681375878, -1.116851182931355e-13, 0.09912501841091716, 3.45253e-319, 0.001127709200157172, 0.0013093296455582652, 0.0013843542292530555, 0.04524132329518316, 0.0014258549975241887, 0.04586866027410968, 7.2811041278026696e-09, -0.04352599174324711],
        [-0.0008200258690591949, 4.7963006073157616e-11, 0.12522820733618842, -0.0006751313001177423, 4.0638658102908986e-10, -0.005887478495608157, 3.443092231617293e-10, -0.000759235769979151, -0.0008355926697229434, -0.0008657329785366996, 0.03880075503089905, -0.0008821139027902053, -0.03798409958195416, -2.1164e-319, -0.12407945699209813],
        [0.00014146259922172218, 6.366023121569005e-10, 0.03976312581877517, 1.1481345885569949e-05, -3.481587537246991e-11, 0.0006842155673214579, 4.1902543628117644e-08, 9.673305005312896e-05, 0.00015067546595013564, 0.00016600523039777372, -0.12745775258246783, 0.00017299282116093906, 0.12596665965756496, 2.2311215095914662e-05, -0.027082434294370593],
        [-0.0012920778057271896, -1.2693015702340714e-12, -0.07860614917731731, -0.0009551523462251807, -4.61868568211631e-06, 0.16221398753375504, -7.766632179550132e-08, -0.0011470650053434514, -0.0013299494075839735, -0.00140389412280892, 0.08684978452089437, -0.001444433780966746, 0.0867000146676313, 5.074768102662479e-15, -0.08387690213006048],
        [-0.002340192988872839, -4.209157459460618e-09, 0.11789549888012044, -0.0021970739014911004, 3.2468068026732246e-08, -0.006148773182866112, -1.0941878679895143e-10, -0.0022847404870617732, -0.0023532693854375637, -0.0023773815974713415, 0.038371298887264614, -0.0023897728731403513, -0.03534264355477766, -9.795586481937082e-07, -0.11689436250363446],
        [-0.00033456609933128404, 3.721859420484057e-12, 0.0381718134372095, -0.00047076019369493067, 8.55638910063013e-10, 0.0012863905085017738, 1.7606005811494766e-11, -0.00038346227340848037, -0.000323847717917314, -0.0003051219575453929, -0.11948756682119753, -0.00029601130232430713, 0.11837800812779788, -1.953837830006952e-11, -0.026052629432132397],
        [0.0008192421725503402, 2.0713989657816235e-10, -0.07862657742377949, 0.000636766946067279, -5.678726558140453e-13, 0.16092229227882, 2.291537899741941e-10, 0.0007385617337530084, 0.0008408007624714983, 0.000883433705013056, 0.08640829219459907, 0.0009071010621573841, 0.08616995382229822, -1.9095300560310773e-05, -0.08491163276924985]
      ],
      [
        [0.06657222806946539, -4.928783709737957e-13, 0.054239211794433105, -2.3286207391906544e-12, 0.08406385604713261, 0.06417856056364557, 0.08926783727285827, 7.634463021751479e-08, 0.05080091128106841, 0.0912207882427978, -2.6933215060587505e-08, 0.0891507814121652, 0.06132693770615932, 0.09172509592240177, -1.1527547460439429e-11],
        [-1.503924874930905e-13, -5.276809629525102e-07, 1.610875349065904e-06, 2.1286667492692388e-05, 5.5338575068643585e-06, 1.0360939146095149e-12, 1.0642213182241497e-10, 5.875575903455613e-07, 3.751733880724449e-12, -3.2435847862445977e-12, -3.617945619648374e-07, -1.6657450206857078e-05, -2.6107138348013547e-07, -2.987663213296312e-06, 1.6297492343703628e-05],
        [-0.0742260143655749, -3.988462375387306e-05, -0.061783257724545744, -5.0582571649186554e-08, -0.08884485819382305, -0.07116695861301393, -0.09436553884456503, 1.2970601256653632e-10, -0.05825606278294886, -0.09741463261808016, 0.00013887356912162667, -0.09330838301588608, -0.06932283999420118, -0.09382829958102618, 6.377308057033057e-12],
        [0.051310586075428606, 3.704787293104652e-06, 0.0419568841816581, 8.256668681693628e-08, 0.06380885985891101, 0.04934728182453803, 0.06781069235146749, -1.1156944781635176e-06, 0.03933353627236432, 0.0695534380172459, -8.922364354723588e-07, 0.06749273320406646, 0.047421826457083094, 0.06893712033707097, 3.7452740128092137e-13],
        [2.1703078790357206e-08, 2.0451140069516827e-07, -6.461274622307809e-05, -2.880447153869362e-15, 6.842241702552488e-11, 3.930184110692965e-10, -1.5723255982909666e-12, 8.088621524115832e-07, -4.466253547868781e-11, 1.3046695314863938e-13, 5.977343235902046e-05, 4.549798120967948e-09, 2.5542886424257177e-08, 5.5442043396524405e-12, -1.4968877060694998e-07],
        [-0.07676247076194004, 2.6762698531650915e-07, -0.06396685839685558, -1.5819395963787864e-12, -0.09179631347136429, -0.07360694515018089, -0.09749484293559015, -3.138433829232533e-11, -0.06034479784240009, -0.10065265538524075, -7.765223543293178e-10, -0.09639428897131853, -0.07172113417263105, -0.09691006140482963, 2.228988837718708e-10],
        [4.994747147418344e-12, -5.74641489397366e-08, 3.718795147221915e-09, 1.3467771655127395e-05, -1.399476766161024e-06, 8.67388986503904e-08, -8.107373217129336e-11, 1.1609056619917652e-10, -7.81355288378221e-07, -3.037378284186833e-13, -1.3523528743411704e-09, -5.725440226762244e-13, 1.4631842891146285e-08, 6.65381912617579e-14, 1.329567362550591e-10],
        [0.059951961701663024, 5.993461558733898e-07, 0.04892393734728651, -3.8905e-319, 0.07515001701331253, 0.0577293616846578, 0.07985909102430981, -8.419318301167635e-10, 0.04584118047599648, 0.0817400600839435, -1.61315346725518e-05, 0.07960209120440571, 0.0553102013809033, 0.0817055261461531, -7.1222829071294365e-12],
        [0.0682895781035844, 7.01754815491619e-08, 0.055616036790332606, -2.0206e-319, 0.08646353796103724, 0.06584949619775046, 0.09170592794445857, -1.3665170480113555e-12, 0.05208494566917239, 0.09363750809445062, -1.2463302457817336e-12, 0.09171669293997407, 0.06288474818029254, 0.09456734827874912, -1.6516504887504216e-12],
        [0.07169166998818205, 5.547930342627896e-10, 0.05833728937120318, -1.2877098392780083e-06, 0.09107123818004655, 0.06917362975418527, 0.09670385944996224, 1.1052181537338342e-05, 0.054622174538314264, 0.09859448693548828, 7.233277921318161e-11, 0.09674153969001426, 0.065963271353769, 0.0998392034015811, -2.2877007831006973e-05],
        [-0.0773381048585324, 8.215011678560965e-10, -0.06457652006156786, -5.973471268278917e-08, -0.09233614239698183, -0.07419447218113423, -0.09801359886041652, 1.213155117489043e-05, -0.06096253788920523, -0.10115554984271731, 6.328620408809801e-12, -0.09692095637182303, -0.0723095132192851, -0.09744352406605317, 6.409284322045126e-11],
        [0.0735382243045794, -1.541827495218803e-10, 0.05981307948619569, 6.7645577289865015e-06, 0.09362252028087568, 0.07098400037991989, 0.09944428415157647, -5.168911120717584e-11, 0.055997096206474375, 0.10138810147156226, 1.154413951745362e-05, 0.0993811083906314, 0.06763130139519533, 0.10293820249158916, 4.344530526044274e-06],
        [-0.07745613129325216, -2.4728628858410988e-09, -0.06462385655696923, 1.3718621937364166e-07, -0.09250150339498063, -0.07429845331390925, -0.09818916303156, 3.854896737044998e-09, -0.06098301765355725, -0.10133524409503604, -1.4758215083310486e-12, -0.09709498991268777, -0.07240359270614524, -0.09761880252560015, -5.0248533608278546e-14],
        [8.209975643010508e-10, 1.4959990637117695e-08, -1.2033281349704954e-11, -2.2135503482414792e-07, -4.47124e-319, 1.1865864892051693e-11, 1.9587946340226052e-12, 1.0673316074764003e-10, 5.0499740958064875e-05, 6.355367585619014e-07, 1.013647607721865e-11, -5.6495608314343104e-08, -1.919198476658845e-09, 3.5060661730658632e-09, 3.8787097498803015e-10],
        [-0.0742059851923228, -9.152253743534402e-12, -0.061609898644267067, -9.000198146163714e-06, -0.08900127379773545, -0.07111051705455365, -0.09458537601956508, -1.987202348492088e-07, -0.058038323114687276, -0.09766833067523131, -1.6967655894570173e-09, -0.09351693213027304, -0.06924251778593847, -0.09404458323736743, 2.8087247206654603e-09]
      ],
      [
        [0.12732006852459052, 0.17440319443065713, 0.08973435506740288, 3.482953489791131e-13, 0.12501332923165798, 0.09788643757588572, -1.7938357002430307e-12, -8.755768641032107e-09, -6.615812915293378e-09, -2.4683392577045486e-08, 0.06889078640836709, 0.15821037950173175, -1.1837031117688679e-05, 0.07943785197483803, -8.761560589275304e-09],
        [8.552828986863591e-10, -1.393143226479846e-11, -1.9034512855071034e-07, -1.1406549351021819e-06, -5.111496345847891e-11, -5.323474696591388e-08, 1.1130737368424413e-07, -2.932443767959425e-12, 3.864168142367525e-13, -2.0709395590447818e-06, 7.836066595239264e-07, -4.614868440368099e-05, 6.507445068428047e-08, 9.253630971720962e-11, -4.463574578002121e-09],
        [0.10619191225540628, 0.1450455631071985, 0.0750926666343561, -2.537032982741055e-10, 0.10402423839165212, 0.08172928373958482, 2.2328148723475433e-06, -1.0495097369512708e-12, 8.171280187774436e-13, 5.866028009441219e-11, 0.05785741311134327, 0.13134171495807856, 8.229149974493048e-13, 0.06651860582335993, 2.0246292363822746e-07],
        [3.8560598905045395e-08, -5.668393512855523e-06, -2.438327991186078e-09, -1.108078604532294e-06, 2.590405892538546e-09, 2.602669338944108e-07, -2.0059349532813214e-10, -8.540046383741785e-13, -4.2010075744469505e-12, 6.908129502313226e-08, 2.584098390600516e-12, 2.9135457842955535e-07, -1.013455678459922e-09, 1.8238147505637394e-11, 2.7103535000095797e-06],
        [0.15108945327581422, 0.21114214598670966, 0.10522749434225091, -1.8801913978279112e-06, 0.14935640646637052, 0.11538608302962976, 7.146724506682904e-09, -2.587057899322403e-07, -2.54772579522282e-07, -1.5565337218764752e-09, 0.08012275222001589, 0.19146724528405423, 8.943371828285044e-13, 0.09288812623257707, -4.128931745038568e-09],
        [0.12186536046761817, 0.16810212485279374, 0.08569356886265399, -1.750877980554324e-06, 0.11956481953176436, 0.09348001015005258, -4.500145355080896e-06, 3.011740288181631e-08, 4.307138598010478e-09, -3.7245783282418725e-09, 0.06576437750396238, 0.15185994557067953, -2.7825660531411e-09, 0.07582118783764566, -5.098831670852089e-13],
        [0.16110163459040516, 0.22344862334534613, 0.11192183701654884, 4.0464485837109946e-12, 0.1587306542803786, 0.12278125991607577, 7.254116641582615e-12, 2.9055676243388043e-08, 6.850616955393507e-10, -3.0282318987216895e-08, 0.08515244968323801, 0.20323866557300838, -4.9727426120207094e-08, 0.09882359932575793, 2.46721426173383e-07],
        [7.758845436582581e-10, 1.5848195732928656e-11, -4.4491594568476944e-12, 1.5353424107097175e-13, 1.060358088563177e-12, 3.989619784596345e-12, 4.6568249647935085e-06, 3.8418384839249553e-13, 1.7190162190805874e-05, -7.740436894122195e-06, 3.879072167152987e-05, 6.694992886068704e-10, 2.4249531416089513e-07, -1.1167756989897616e-12, -1.8644850235509197e-08],
        [0.1001769675931317, 0.13676319416238883, 0.07090663549775723, 6.820134774817253e-06, 0.09808072289774848, 0.0771264994191781, 1.2255695117348515e-05, -1.3502441726332003e-07, 1.3063015365006049e-08, -5.000973015149345e-08, 0.05468520223861012, 0.1237550045132329, -3.562615872648574e-10, 0.06282096383873731, 3.278522912924069e-09],
        [0.16632610618687893, 0.2304089644642307, 0.11607461776024416, -2.416054399690333e-07, 0.16364890676770805, 0.12728285132732597, -4.4680644734024627e-10, -0.00013005028563028873, -1.010686420426447e-05, 1.0493632610016703e-09, 0.08838243171511624, 0.20921447342449123, 1.035330059418544e-12, 0.10256145245083043, -1.213137852500585e-06],
        [-1.6993535515822582e-09, -6.696255554209094e-08, 9.362262951930387e-11, -2.9414148477077096e-05, 6.590299799159978e-13, -2.256205249395279e-07, -9.955281687197675e-09, -2.982929759608026e-08, -9.947091319061814e-07, -3.4446165090159603e-06, 5.329750492451945e-12, -2.0488504489830864e-12, -2.193055328105457e-07, -5.953415673128282e-08, 2.338148471102922e-09],
        [0.15875455423848361, 0.22342660204300688, 0.11005105651823756, -2.875191296948969e-06, 0.1560256047324816, 0.12066015253155299, -4.5447778286179094e-08, 7.438984639038479e-05, -3.7199462001571864e-08, 3.674753723664393e-06, 0.08365900400699378, 0.20064737270802158, 3.825739836053594e-09, 0.09710978615032682, 9.642197508651209e-11],
        [0.11912566844477258, 0.1624788255471773, 0.08422843467079687, 8.958307891560861e-05, 0.11684500903334322, 0.09176162908388202, 1.611105603502297e-09, -2.7474643352675086e-07, -8.460514928656343e-11, 2.4770260520841813e-09, 0.0648044334709303, 0.147341039301138, 4.787719344075995e-08, 0.07461235518250306, -1.8345173424430729e-07],
        [0.15896531376374903, 0.22675169958647343, 0.10960480080085262, 1.3643909598423458e-09, 0.15650551329523052, 0.12046006868733822, -2.730887981705505e-11, -2.4662502039719897e-09, 1.2801002103899134e-11, -6.090103552039731e-10, 0.0830961337229131, 0.20212397211633623, 3.3440937169366576e-09, 0.09659249549156596, -1.1450187551732812e-12],
        [-6.238868581709674e-05, -3.0714537535053516e-07, 3.455389289657091e-10, 1.578752384305376e-11, -2.7105812659554577e-08, -2.1972732773522842e-07, 2.418837155890505e-07, 2.4122058914604284e-12, -2.4889158591883935e-08, 2.7829105666914746e-11, 4.175670265929181e-06, -2.2293400258184452e-08, -3.180701996261411e-06, -5.304816145950161e-05, 3.231006653881612e-11]
      ],
      [
        [-4.574395889766239e-13, 0.08060713127202329, 0.18025115376907366, 0.0753487549051951, 0.17361243836647725, 1.0914804939712247e-05, -1.3819283973869342e-08, -7.150405655958641e-10, 0.16926022133630936, 0.16898351687688115, 0.243922308442554, 8.866659259822858e-10, -7.467150830026041e-13, 0.16788307190832116, 0.2428641201751788],
        [1.96184975803262e-07, 0.10697386848656754, 0.24731001939197672, 0.09899060469954304, 0.2318544436390033, 8.876474483040301e-07, -1.604846213237542e-10, 1.930476302985095e-10, 0.22585566958532438, 0.225871019506829, 0.32912918292982246, -5.415330200781307e-13, -0.00012996636263845114, 0.22745994616089205, 0.3259957734263445],
        [0.000155669005717364, 0.058788720038234425, 0.1288208390222607, 0.05537656357044744, 0.12578445839759292, -4.077193008589611e-05, 1.5262083519802393e-06, -2.1990450247443987e-12, 0.12227487226930088, 0.12223222496396897, 0.175281828873901, -2.4851267077178266e-09, 3.0218251197188815e-10, 0.12108416203637358, 0.17369940953479757],
        [-3.6601665260365097e-09, 4.003430965335759e-05, 3.1940776382185095e-13, 1.2044562006220109e-12, 8.040715918210073e-06, 3.447254669515594e-08, 2.0533815445360164e-08, -9.306666316313472e-13, -6.271608434013127e-05, 1.2329221912823268e-07, -5.942465820871541e-08, -1.0892899360470174e-09, 4.760467234700995e-10, -2.0613424452751102e-07, 2.1278119708514196e-13],
        [1.7669888725377142e-10, 0.07735116604570835, 0.17351024334708834, 0.07235345776501036, 0.1677675263165711, -2.2904585024505427e-10, 1.1266664520117346e-10, -1.8396331796526022e-10, 0.16300521521604816, 0.1637677701874909, 0.23819627910833194, -2.0792430846233928e-13, -3.1208055643714135e-12, 0.16266494940088277, 0.2372361327163925],
        [-2.53826e-319, 0.06267566421395115, 0.13906199429715993, 0.05894069709658269, 0.13517234424648714, 5.2663987645878114e-08, -1.800843199195599e-12, 1.972378260454195e-05, 0.1313458114813388, 0.13129110122679874, 0.1889809135874203, -1.3786521766591297e-12, -2.8361324583419775e-07, 0.13019550812117486, 0.187504047707833],
        [5.219886590649561e-05, 6.677495981945429e-07, -2.398910801565117e-06, -1.033415132012489e-09, 2.5985892119392527e-08, 1.0663756120605094e-08, -2.729824135302529e-12, 9.45991199698338e-06, -3.3282183371972884e-05, -1.367468798679011e-07, 4.502108268763589e-12, -0.00012286204906079593, -1.1920588539206193e-11, 3.5527854615026584e-11, 1.7834640443404377e-05],
        [-2.2521185378232328e-13, -3.3109650990588373e-13, 8.389680190381769e-11, -1.6062884528185907e-10, 2.6424429803068764e-09, -9.7760448256733e-10, -1.2553413968209133e-12, 4.951543799186102e-11, 3.050979757633979e-10, -1.719177494562332e-06, 2.1787088191204054e-09, 5.309684726839634e-10, -3.2850363284303816e-12, -1.5011624170431683e-08, 1.8504678466864284e-08],
        [6.731328552190514e-09, 4.093700673850746e-13, -2.125389325280705e-07, -2.6892126395556873e-08, 3.252130112430165e-11, -1.100581874517686e-06, -5.999318451374672e-08, 1.6423408996967945e-06, 1.3522196544627285e-12, -3.2636383421093554e-09, -2.8658345747415848e-05, 2.11677e-319, -1.8497144035016833e-11, -2.708283751736482e-12, -3.1482897206274785e-08],
        [-2.8181435396308356e-05, 3.307085340176745e-11, 0.00022936296254147056, -6.913314972468226e-09, -2.2914323293119537e-11, 5.68063562709546e-10, -1.521727686643263e-11, -6.025481591916607e-07, -3.2389248054415885e-06, 7.10221453185753e-09, -0.0001220068026604562, -1.897441179947337e-07, 4.656341172734222e-11, -2.633788650983567e-07, -1.3600822818655855e-08],
        [6.151829287795851e-11, 0.04702631883944494, 0.10120341502953369, 0.04448482782971496, 0.09960219907806589, -2.3667762623315448e-11, -5.038911196088087e-07, 4.5878789213143844e-09, 0.09677557695825678, 0.096697110933429, 0.13702872573054417, 2.5816099562298812e-11, 1.1015265339220974e-13, 0.09564186004901741, 0.13616698666997556],
        [-5.663513846250973e-06, 0.09595831131222779, 0.21971234874767284, 0.08915312979466403, 0.20880294251876594, 1.8907629842883443e-08, -3.382316489769917e-08, 5.777134517937491e-11, 0.20351329865108728, 0.2043879659216858, 0.2967585744910372, -4.4708986018609e-09, -1.4401428645470699e-11, 0.20260484550164345, 0.29848839374814023],
        [-2.5842172525262855e-08, -1.4079160773743935e-11, -2.3448751640339705e-12, 4.09760707178974e-07, 1.8977134989000325e-10, 6.04621801642475e-11, -5.86157906535507e-14, -1.8213522814940915e-10, 3.4739806590502423e-07, 7.275502201814681e-09, -1.697865886714174e-07, -4.9318e-319, -2.8569976680811745e-10, -1.4652341268456233e-10, 1.1099178709555607e-11],
        [9.965476299651499e-09, 0.052438831776392934, 0.11439460024915629, 0.0494979140739479, 0.11214360082236083, -1.1027480192268318e-12, 1.610226796737304e-05, -2.576226151912008e-12, 0.10894675595078523, 0.10888116640118162, 0.15577033002658894, -1.6559497844146917e-07, 4.694093289957637e-06, 0.1077744220659198, 0.15490104319317788],
        [-3.1842729688366997e-12, 4.18093e-319, -1.6891612356421982e-13, -1.0492783229049042e-13, 1.1635828858791753e-09, 3.682437913075437e-06, 8.392370372740935e-08, 4.1505175323023214e-08, 6.560469506488714e-13, 4.955660166644215e-07, 1.0323266668227875e-05, -3.964858747042232e-12, -9.38426616465232e-08, -8.118355802035341e-10, -1.259959874388895e-10]
      ],
      [
        [-7.389945616133374e-13, 1.1254593859293578e-06, -0.00010317232846820848, 1.6178929447184652e-06, 3.674112693840067e-07, -1.2292970917269082e-05, -1.1820939664178998e-09, 1.917838089663588e-06, -8.957789968478e-14, 1.6813105569379775e-12, -9.336549838843033e-13, -5.697496062553573e-05, 0.00011583958829044044, -1.5177530179115022e-12, 3.3720545701403355e-12],
        [4.368708856028295e-12, 0.09072941073088435, 0.10640073328717284, 0.07779036812944516, 0.08179434037587421, 0.06449534969507854, 8.623112326302753e-05, -1.8072693724181843e-11, 2.1930996588434066e-11, 0.0848119525897891, 1.2536760066741538e-13, 0.031457214866589096, 0.07357458050450996, 0.10981410292857248, -4.346678221283288e-10],
        [-1.7939558379972414e-09, 0.18560079134786903, 0.2213729551663118, 0.15937516656413928, 0.16658412321305816, 0.13019368429760295, 9.064109894051138e-09, 2.119094135285702e-11, 7.142339097893036e-14, 0.17383515410486103, -3.165401849994611e-12, 0.06229501672116602, 0.15078947084587288, 0.22931789749337786, -1.895410859375565e-08],
        [-1.4028472730117234e-08, 0.08729960690735043, 0.10185365316708174, 0.07512333123881622, 0.07891525083241178, 0.06254882174222871, -5.616626764084985e-10, -2.4755898266903056e-05, -6.15890342523995e-06, 0.08173982448495479, -3.131045644566579e-05, 0.03078792368484644, 0.07113085819980389, 0.10498728998446885, 2.501413508217e-13],
        [1.0337601124417445e-07, 0.18707964803665966, 0.2217531883721242, 0.16148136371297314, 0.1693749196585197, 0.13316882207860417, -7.518717780668733e-13, -4.222773292301373e-10, 1.6141868369974515e-11, 0.17611801438933905, 8.9639252520346e-06, 0.06474762353862451, 0.15324482053747976, 0.2294897908217617, -6.75108275807238e-05],
        [7.195210618746637e-11, -1.9575262856907594e-09, -3.4685737407179024e-12, -0.0001406216090537129, 5.514268050187631e-14, 3.2384689991047354e-09, -1.1694663826810597e-07, 1.6870666714967936e-08, -4.014173659980516e-07, 1.4987714191737975e-11, -1.5630519747236944e-10, -3.9711813004760505e-05, -1.3337693837800168e-12, 6.010457054224514e-05, -1.4280059605463256e-09],
        [-0.00020270797654988013, -3.1094251964121514e-13, -4.0103590390441215e-08, 1.1669223533138527e-11, -0.00012273288863014578, 1.1908471681598585e-05, -3.014188104674488e-09, 2.74301920935793e-12, 3.3557631865491524e-10, -6.237785679309762e-11, 7.529296055876211e-11, 9.7809013281058e-06, 1.208866120491965e-05, 1.3189487221858384e-10, -8.970357174215579e-06],
        [6.161877271924213e-07, -2.708188016913627e-12, 4.419288008679427e-06, 1.0141493293838563e-06, 1.211677109353209e-09, -6.736594960097324e-10, -5.887918722271383e-06, -1.0975396532701646e-08, 2.650925338762395e-07, 4.14798327351875e-12, -9.658329295481852e-05, -0.00010812663595861303, -2.849786053994047e-10, -5.760373252124772e-13, 1.9951644895294483e-06],
        [-2.794256064582436e-08, 0.18182449954776106, 0.2145563058734006, 0.1563841082591029, 0.1642483015477877, 0.12896073860589105, -1.665901152960351e-08, -1.9654970995677863e-10, 4.998606099370543e-06, 0.17040643199575717, -2.792275954764962e-13, 0.06257367846152564, 0.14869265966050169, 0.22223958008682337, 1.2863301999376243e-05],
        [-0.0001887417229496688, 0.18178006523680562, 0.2126202646636409, 0.15616343318693057, 0.16319015834682085, 0.128429163792044, -0.0001055969091569462, 3.440371317770894e-09, -3.488135968629719e-07, 0.1700308147441449, 2.942622446330643e-11, 0.062238087625365944, 0.1480394909049414, 0.22290508203041973, -1.2976668832820585e-12],
        [-6.0378366477633426e-09, 0.25596253577830913, 0.3085967641364692, 0.22216963715984167, 0.23008253850641092, 0.1803934349090313, -2.574419645785534e-08, -2.0446104569783084e-09, 8.850091484017188e-13, 0.24109149524746037, 2.919879469690967e-12, 0.08710828813403834, 0.20953467329488554, 0.31007910421291407, 7.326140245157673e-09],
        [-1.1171400837640007e-06, 7.808390142354651e-13, 5.827e-320, -1.3476752252324131e-08, 2.617752147291929e-08, 2.1090096087201633e-06, 3.6932292109524844e-13, -1.8917467214637965e-11, 1.1710271839980877e-05, 3.534630025601524e-13, -2.2172979028930977e-10, 7.419106691545203e-12, 3.0511724797916804e-12, -1.894238209445406e-10, -2.3018e-319],
        [1.0935557307729011e-09, -2.7515734542103388e-05, -5.4130680070425805e-11, 1.39662e-319, 3.743892913583258e-13, -1.3450882319246706e-07, 1.7265359576636922e-11, -6.900022530423257e-12, 2.6207725649870875e-10, -2.194200715914308e-06, -3.3862715422049835e-13, -1.2927975608719631e-11, 3.2026667322818386e-06, 2.266512894745418e-05, -3.757233790189999e-06],
        [-1.6098613126957418e-12, 0.17758532069153263, 0.21146359299343018, 0.15303914023589263, 0.1602933860110404, 0.12569197588092076, -4.4482424680251277e-07, -6.950891790848235e-07, -3.8836639040256305e-06, 0.16653790307839186, -0.0002109332506397003, 0.06067531866168212, 0.14490969737795395, 0.2189047241722865, 6.227826358591707e-06],
        [-6.366206424973448e-09, 0.257028591810073, 0.3043473008930352, 0.2206076510936878, 0.23062824886959468, 0.17971934296682596, 5.618029557019044e-09, -4.303964690030016e-07, -7.153380790164615e-13, 0.23953409648376406, 1.0398835321930075e-08, 0.08652557695765047, 0.20963489055637274, 0.3040268237795073, -9.334723172920153e-05]
      ],
      [
        [2.34273284147354e-05],
        [0.5971874821543999],
        [0.6942614975551904],
        [0.5107463752621777],
        [0.5391525663859932],
        [0.42783194970631067],
        [-1.693402954303265e-07],
        [9.70161125990997e-09],
        [1.3336138409761649e-07],
        [0.5572189203869016],
        [-1.0590480775862292e-09],
        [0.21260753338787466],
        [0.48219587893925153],
        [0.7163683429329826],
        [1.074910658091728e-08]
      ]
    ],
    "split_point": 8.0
  },
  "nn_main": {
    "intercepts": [
      [1.4540152416384484, 0.17706685894702648, 1.898462367400574, 2.1851471178984694, 0.19023303987124224, 1.727531149885387, 0.7292134595562743, 1.8022517740271096, -0.47703358327323236, 0.15884940537732808, 1.4089241914557344, 0.668677063097782, 1.9691855801327767, 2.405031390081477, 1.821018247858818],
      [1.9712738936409846, 1.3340905378202494, 1.8468689147252164, -0.09952958185504715, -0.29497467439107117, 1.2499788415403055, 1.3582257542260945, 1.3439255063284867, 2.358467883918481, 1.5180203488922843, 1.3248930901399487, 2.0352175314682084, -0.020058759058213797, -0.002214062566756932, 1.2953476702863806],
      [-0.1209303279375452, -0.04474296621374995, -0.2596574798975276, -0.9146145506508111, 2.3162426124407136, -0.008433514074918526, -0.12403763838248778, 1.5946591819387823, 1.2363477869097987, 1.2688024341145017, 1.9101538913073826, 1.5661099084180987, 1.5728132723913313, 1.2891690129212918, -0.05646756555128493],
      [-0.036945794273135185, 1.8104127258229692, -0.013290980805004139, 1.4051970088241743, 1.7381106426515809, 1.2998311429038285, 1.0651836442230103, 1.1413494089603236, 1.363858178297277, -0.37431610786229924, -0.3382554094733857, 1.264066073520625, 1.2211535228568637, 1.4816508830929964, 2.223829266373267],
      [-0.12958471781400938, 1.592321887157034, 1.2890618317213205, 1.7337184282525497, -0.35771157328486575, 1.2196208455274755, -0.052534295111422595, -0.11330908149251256, 1.4797098610655919, 1.3554267551062908, -0.03366378906824581, 1.111368585190165, -0.013180924825051907, -0.4392473270238896, -0.39872867204406576],
      [1.6063903116633191]
    ],
    "coefs": [
      [
        [-2.1575531190066123e-11, -9.846814042660397e-08, 1.0872549855323733e-13, -1.0533639173249085e-07, -0.00011921572590530603, -1.2786301077525596e-11, -1.2749006115480073e-12, 1.5796787825890996e-08, 5.579747546459262e-08, 1.729428237230712e-07, -3.596495497433336e-13, -2.529661152073226e-14, 1.426435743357315e-13, -1.1084282327380194e-08, 3.227143067764944e-06],
        [2.9179405765307957e-05, -2.0969214751744878e-10, -4.895668781305509e-12, 1.7359274133162778e-12, -7.586599279675395e-10, -1.3154143971389265e-10, -2.5766121304227254e-11, -8.942709082551112e-12, -5.066692005229798e-10, -2.776278019225082e-11, -5.468145287791181e-07, -0.00019418931641830396, -1.4940261780942658e-05, 1.738636631910926e-11, 1.9002428990530828e-08],
        [-2.105647929364152e-12, 1.1050748302466646e-10, -4.759816557617247e-11, 2.720850055305659e-10, 5.351867497608131e-10, -7.361236265222684e-10, 2.805753562451421e-09, 7.91706390313555e-05, -1.7735802957926683e-08, 1.0096734674814682e-07, -1.760404650927041e-05, 1.211891284914495e-10, 1.3156768488425357e-10, 3.183081007404103e-06, 1.2585982478377307e-07],
        [0.0004462215448810211, -0.0010546847324263645, 0.0004964246886022361, 0.0003801986907475309, -0.0012796524854898654, 8.18865358781588e-05, -0.0019867853247283796, 0.0001312977356397833, -0.0017279435163331672, 7.356750234309225e-05, 0.000141505524583308, 0.0013509287035870618, 0.0003007966590222517, 0.00018307617796754669, 0.0002325828788115737],
        [8.457839609765792e-05, 0.00039099024935145834, 0.0001568800578929945, 8.596114882364389e-05, 0.0013500952584085857, -4.3788201026739236e-05, 0.00975815913874746, -3.9069936167724614e-05, -0.0035202525372273613, 0.001110649491089621, 4.211338463389999e-05, 0.007678020902209609, 3.3736388630902704e-05, -0.00010334759892509212, 6.400069192098848e-06],
        [-0.12315319402918815, -0.06820027882563046, -0.15347791547037876, -0.07739174863097162, 0.1258254204937756, 0.1165136607363872, 0.34086356746751667, 0.0853099002820894, -0.0380976888990171, -0.03603000445564524, 0.07715989026905594, -0.3172205585357949, -0.02410769756395706, 0.05809555999288519, 0.019752869753981914],
        [-0.005070695598916058, 0.10293383846506433, -0.007950500604661473, -0.01521140475831527, 0.11193544246838825, -0.021110078751393098, 0.020612744966131597, -0.020148343651468305, -0.11062179435462147, -0.12821967378247656, -0.015678141154490444, 0.01799726764403035, -0.01585339724747527, -0.025426150262247142, -0.016711761033008872],
        [-0.0011334862347010589, 0.0016857428456763706, -0.0012319756972996095, -0.0011557736800936126, 0.0038754174220206852, -0.0006712621094738963, 0.0012224150383136922, -0.0007632706056191173, 0.0007879199527763641, -0.002583809532896385, -0.0006318974840204146, 2.6491509342391846e-05, -0.001017595970205978, -0.001013158449661504, -0.0008978673366072781],
        [0.0003443663754792755, 0.0003043144198344213, 0.0003551683449039077, 0.00023613505461870718, -0.0015480373001536538, -7.522887030220177e-05, -0.0002408724220915639, -1.638493850487509e-05, 0.00011923705574457314, 0.0006137397783337947, -3.4102083889032866e-05, -0.0018756793535758334, 0.0001612090088083541, 6.476334032350382e-05, 9.054324995536115e-05]
      ],
      [
        [0.1294546518617125, 0.03316885116863061, 0.06110078204887347, 4.4049241778640103e-07, -1.1145499893914604e-10, 0.08212948098677764, 0.025151447734919025, 0.02842850519481963, 0.07762008250623473, 0.02684173577641909, 0.033093509426320944, -0.021528570238000064, -1.3643253274797055e-05, 3.6401902068457295e-09, -0.009043878646575979],
        [0.06945709871777057, 0.0246376750658191, 0.04110979469866621, 4.423323581207122e-06, -3.116583017612904e-09, 0.04130286404782361, 0.02204802527595888, 0.02309353627081661, 0.0559057284568347, 0.02447156751046674, 0.02444728558630651, 0.016126508153462327, -7.645803967388554e-11, -1.0370732904770548e-05, 0.009258762898094318],
        [0.1710763580904803, 0.044811058750440516, 0.08235384583650314, 7.401234866304026e-05, -3.6369271326734353e-08, 0.10551117802366888, 0.034930646754614506, 0.03898281805452681, 0.10853554872230262, 0.03768887347203228, 0.04463027578176396, -0.01778101408332235, -4.85365e-319, -3.4587498473935346e-05, -0.0077875506278785355],
        [0.14879041566623377, 0.04915962250735615, 0.08625191706179447, 2.1909e-319, 4.7275548776941534e-08, 0.07747984853826095, 0.04494656380617899, 0.046698426102230024, 0.12832565111550498, 0.05104910998613373, 0.048553785310681885, 0.04979882766631866, -3.40337e-319, 2.641225664809751e-12, 0.022347203029396072],
        [0.00549122197112433, 0.023994275423990317, 0.03291629818331236, -1.0270116432717103e-12, 1.243639227097004e-08, -0.019217493251826687, 0.031747483716097126, 0.02856911071377143, 0.0654650803882968, 0.038719724814949966, 0.023217995442528023, 0.11855072757784776, -2.7388467258164073e-11, -1.0174216752376912e-06, 0.057064698860820294],
        [0.018993934020378092, 0.03157757884024545, 0.04674246608575465, -2.560818933848684e-10, 9.122122182625657e-13, -0.01990027940228231, 0.04092684346361211, 0.03711816799160939, 0.09439607457145256, 0.050334012932549216, 0.03050795467515819, 0.15441304500044797, -2.3287194611172887e-06, 5.0059970495992586e-11, 0.0706149982895124],
        [-0.1809013191030435, -0.01648166611513272, -0.042400491715492476, -4.712934749294632e-08, 2.50245494216972e-07, -0.15865835212268012, 0.007907891044570734, -0.002046904325473919, -0.011808436957308086, 0.01658028047728495, -0.017671195081789257, 0.21461825559250997, -1.208963470091685e-06, -9.172351503539629e-11, 0.09969299104289375],
        [0.03973634821999372, 0.034409159499459406, 0.053086893839383226, -4.193453956764571e-05, -6.541194094282916e-10, -0.004241723387029641, 0.04157525210382194, 0.03866094467209195, 0.09972309393922787, 0.05044969268497112, 0.033415506215683434, 0.13745387332287398, 3.959948965444642e-13, -1.3988374072163606e-09, 0.06283903929099087],
        [-0.0529863083800678, -0.02338232386733029, -0.03742374408096419, -4.825154365006579e-08, -1.4580067822525503e-10, -0.027665772766986327, -0.022905737430754913, -0.02308640468282109, -0.05464151094650184, -0.026086797000619777, -0.023094606115833867, -0.03527108084759578, -4.811580276134626e-07, -3.734971337921306e-09, -0.017980010668283822],
        [-0.06434802909040384, -0.02743572592985352, -0.04384134267179812, -2.6905625888007116e-06, -3.73227e-319, -0.03486261503705139, -0.026462157926018276, -0.026846500911501835, -0.06290797937984162, -0.02989062372245282, -0.02712725064034394, -0.036651435390734684, -1.4903974841667881e-15, 3.050439190843907e-08, -0.019324753651844898],
        [0.02156537592135336, 0.025321301776120932, 0.03804946427890414, 4.7519975293538236e-08, 2.4072622083836448e-09, -0.009109866178921724, 0.03162482181448922, 0.029052247766767673, 0.0731711933106755, 0.03859781217836073, 0.024544165101652953, 0.110831153939876, 6.989513892016094e-08, -6.231410638119868e-08, 0.051048947955113624],
        [0.139536109572397, 0.000626525341352319, 0.017813725872772423, -1.0752937413373512e-08, -3.0960293887204984e-07, 0.132221451723648, -0.022127347515367893, -0.012834465389004238, -0.020104678157767484, -0.031912373785115036, 0.0018983688476638578, -0.22382608826079853, 4.494057455551554e-05, 5.240413969754762e-08, -0.10632977404104865],
        [0.10717072502936763, 0.04211551525038961, 0.07155485037999715, -8.427557678988461e-10, 2.209749455917975e-11, 0.04869427509760859, 0.04155897954324531, 0.041806022197308355, 0.11280806340826859, 0.04816377284331634, 0.04143221126906243, 0.07304138254165327, -2.202584847657822e-06, 3.992558509720656e-11, 0.033383274518556244],
        [0.09267558341837583, 0.04995278599727204, 0.08133760792612116, 9.748130846867452e-05, -3.2800571821031564e-11, 0.02125105016233024, 0.05563466204978578, 0.05335862819414354, 0.14854491937271622, 0.0664493056608065, 0.04873469387285572, 0.15484510108464125, 1.7024019884525506e-12, 5.531909520259681e-09, 0.06919513451758365],
        [0.075228568070469, 0.03706375907268438, 0.060783756108709515, 1.1404101462437066e-11, -4.1654e-319, 0.025678939108959502, 0.03954306784287933, 0.03854394639967915, 0.10170102707689309, 0.04670192895609133, 0.0362974704222354, 0.09426224293360418, 4.184005980594807e-07, -6.002136908403481e-12, 0.04323101835648125]
      ],
      [
        [-0.14502152713618197, 3.6079246520539304e-06, 3.075377006993201e-13, -1.2606181588475708e-10, 0.2780792351996134, 3.411906049973608e-07, 0.24225119644560905, 0.1862916913839018, 0.11378039489418419, 0.05974781547664385, 0.14237423992090886, 0.15508641756003494, 0.11398251534014292, 0.062218008989436, -3.750265710900199e-12],
        [-0.007933329872821186, 8.487941255662956e-09, -1.2656292716055226e-07, -2.1315805915899897e-13, 0.1340990029876261, 5.554475522080509e-12, 0.018669619431061726, 0.09415246670587529, 0.058700385300776974, 0.03314501451435293, 0.07507235187329629, 0.07915758558111383, 0.060359997026231134, 0.034440344014017056, 7.524744158932276e-11],
        [-0.02669413857736218, -1.9572868340508387e-08, 3.58613e-319, -1.9337226668604468e-13, 0.21124181243414727, -2.4009991986741328e-12, 0.05378512849016818, 0.14875221130524058, 0.09166495524705115, 0.050123343556696225, 0.11584564324359836, 0.12390733845768069, 0.09307709626756869, 0.05213416866284886, 1.5515998255341466e-05],
        [1.0814827064457455e-10, 2.518730737408835e-10, 0.00022470981902275627, -1.0397486009858071e-12, -1.0819072685474768e-10, -7.104355751735573e-13, -1.485775882746151e-07, 1.945906682958031e-09, 1.2196869842062299e-13, 4.289962383797316e-07, -5.4563089059287154e-08, 9.973649467733289e-08, -8.233110186366171e-13, -8.277113443719779e-12, 2.464495981670833e-10],
        [-2.080707619864409e-09, 8.438584660069551e-08, 1.5644769221292805e-08, 1.2397338267304048e-06, 3.8327911557184256e-06, -1.3976706177807233e-09, 1.278804372767254e-12, 1.5464064565149877e-05, 3.826395640634431e-06, 1.706010664805302e-09, -2.844551478883465e-13, -1.7393245050621064e-06, -8.976179526204415e-05, -1.3089563413880544e-08, 8.043938664967162e-08],
        [-0.131798920557709, -4.217686613296418e-09, 6.577058873828516e-12, 1.6744995916184432e-05, 0.12208985034702081, -0.0002354753842264514, 0.2112347412701145, 0.08559096377560618, 0.05324600522733552, 0.030109824972709302, 0.06828597930505469, 0.07191226532627616, 0.05484242359646123, 0.03128734090635159, -1.375048157046113e-07],
        [0.013400597379645355, -4.0966112364911745e-06, 3.5405871981974213e-06, -3.063971780608236e-11, 0.13773767137553722, 1.132731513533336e-05, -0.014400635536603595, 0.09677902425824432, 0.06029934303341752, 0.034010222934291165, 0.07707633998257242, 0.08131776967987261, 0.061971253519133164, 0.03534020957845394, 7.050444912280474e-08],
        [0.004684470592891895, -5.433773993780164e-10, -4.616631503542606e-13, 1.5287664296812861e-07, 0.1363215342067291, -1.2348092022589076e-11, -0.0009076141713685864, 0.09563079407213884, 0.05955342909376658, 0.033594825581611844, 0.07615801717860488, 0.08033760305281921, 0.06121940961018626, 0.03490863156017577, -2.60891090332972e-05],
        [0.005394812068045632, 2.5854324184822725e-07, 4.32836e-319, -1.6064454210912083e-11, 0.3173028864753911, 2.7639195762837946e-10, 0.011472052188695552, 0.23624827422615083, 0.1396941852460962, 0.07220286345910834, 0.1727615820235305, 0.1912686412799663, 0.1391870302163615, 0.0752256314525025, 2.5657196417579664e-13],
        [0.022001271740857097, 2.553851078660927e-09, 4.784256178996943e-09, 1.2684982511962626e-09, 0.1586226423741799, -1.2702172825073235e-12, -0.026209919476484506, 0.11161806134206019, 0.06955655495579653, 0.03894013974585096, 0.08857898149028873, 0.09374172045329898, 0.07124814141442203, 0.040471917772336975, 1.2937447349108455e-09],
        [-0.009059560921065857, 5.218620879352499e-05, -1.1210285272087307e-13, -4.428876779695097e-06, 0.13185144700045512, 1.470500458941126e-11, 0.020292926368909066, 0.09276528010060663, 0.05790995475462651, 0.03273937691607586, 0.07405708972291378, 0.07804752884337955, 0.05956461744952517, 0.034017439714368616, -4.272852631461995e-11],
        [0.19989974120664486, 3.6499823245035046e-10, 1.0968826903325358e-12, -4.932536304791274e-12, 0.2704609688020681, -2.140317753290701e-09, -0.29736228402016135, 0.18704645637916428, 0.11420369102702614, 0.06067852818356681, 0.1430209123081497, 0.15452774300824346, 0.1145389160498573, 0.06315984512987297, 1.8276879454414154e-08],
        [-6.322121184844205e-11, 1.884295100356007e-07, 2.7968499062560365e-13, -1.680713192116201e-09, 1.1645328518607584e-13, -4.391293505456687e-08, 1.222087450926638e-05, -4.721751110251515e-10, 4.661101779545522e-05, 4.648348559107391e-13, -1.4464553478203498e-05, 8.97254718382913e-09, 6.230772072970046e-08, -8.378984755476044e-10, -1.092248520933455e-09],
        [-1.1750761278305157e-10, -1.356935239520453e-10, 3.3538601708337033e-10, -1.048455701808501e-11, -7.9763759538733e-05, 3.705505562970546e-12, 5.757520288258084e-12, -1.0372470375564542e-05, -1.2179079416913988e-13, 3.0335850406177364e-13, 7.780568637198516e-12, -1.1043160594823618e-12, -1.1295152294100684e-06, 2.7435375836104405e-09, 2.0864466796412183e-12],
        [0.09274292080791868, -7.170824258877523e-11, -5.121037177572394e-11, -4.0832557716675633e-07, 0.133869949046447, 1.6749614925484558e-07, -0.13886425266311517, 0.09379996528705924, 0.0581624114547151, 0.03283899948899099, 0.0745087659168819, 0.0786092308123066, 0.05982664526557861, 0.034121159784466566, -1.7086806045667108e-09]
      ],
      [
        [-1.8975610286783135e-12, 0.09675037978781491, -3.9005693354488654e-13, 0.06700615920676525, 0.09505780520341368, 0.049643841132323556, 0.09062206308957008, 0.030100020432658445, 0.06677091387088793, -6.283141933719545e-13, 2.198994644768841e-08, 0.034563482081854904, 0.05938142496831659, 0.04368191198516766, 0.2033253176232392],
        [1.7721123841052286e-09, 5.7809272789315375e-12, 1.2605072903189567e-12, -1.7697607131875173e-13, 2.176170372277616e-09, -0.00013727165473445562, 4.972534197895254e-13, -9.840884414109574e-13, 7.668472854152828e-09, -7.0795e-320, 4.6584859733473614e-11, 1.1729766896370398e-07, 1.1253799520848902e-05, -4.0616640486649376e-08, 3.0145826105929114e-12],
        [2.5497441600758426e-13, -3.3931708963917844e-06, 2.4419776547112105e-06, -6.023191631270218e-13, -9.910576922133908e-08, -3.762175473478368e-13, -3.813006733361216e-08, -2.167138542897907e-09, -2.2876469808465923e-12, 6.754549178180994e-08, 1.0327141438753485e-07, 1.1518509703619926e-12, 5.614887985000872e-10, -6.0363845461053e-11, -3.4360464513648155e-11],
        [1.3963573862510094e-12, -4.0977264698394085e-09, -7.010211173995559e-05, -8.930842535202092e-06, 3.9477483780127106e-13, 1.1099776086528398e-12, 2.3026682534499524e-11, 9.310090219453374e-13, -4.7993386625136446e-11, -1.3688226797854535e-09, -5.056018326576996e-13, -1.2843341511071704e-10, -8.789607323681182e-07, 2.567817032982176e-13, -2.8104727618080626e-10],
        [-7.985991136867932e-08, 0.24236596239761965, -4.1796259931124805e-13, 0.16748628828243012, 0.24116581723408162, 0.11817720774035745, 0.24709220134342097, 0.06401691250037274, 0.16844313786495907, 5.003908815619545e-11, -1.1722026431799178e-08, 0.07425847439966932, 0.14896202625736038, 0.0959796823567033, 0.5659004446010242],
        [-3.5750226289964474e-09, 4.836863760724892e-10, -1.0418886825401997e-06, -6.838125823755216e-13, -1.2126609402079444e-09, 8.554529460942126e-11, -6.961342846238596e-12, -5.671875599894784e-07, 1.0245732140213812e-05, -2.75427e-319, 6.23890370689221e-07, 1.0785231589204977e-07, 4.8673421780346564e-14, 2.3570557391170085e-12, 3.7998177024935924e-13],
        [-7.044211832106537e-09, 0.15096843909936494, -3.745556958239553e-13, 0.10444072684960849, 0.14832260739914954, 0.07729460161905292, 0.1414213651938086, 0.04678611406698074, 0.10407509191549634, 1.1266171738245377e-05, 2.408514753144025e-09, 0.05374236665532282, 0.0925251600839206, 0.06796741130578178, 0.31789484724908],
        [-1.3071230268086536e-07, 0.17420661745893823, -5.407969851772913e-09, 0.11667271464315368, 0.17208975955960287, 0.08250609783722423, 0.17189716266311905, 0.045353235842936906, 0.11640915610439549, -9.55006062687115e-07, 1.0035052439057043e-10, 0.052761535832693475, 0.10367515350002048, 0.06835116960500237, 0.39117833762757953],
        [4.900740192798255e-12, 0.11012357164683921, 2.9479587744257836e-11, 0.07409127587315528, 0.10838337351991838, 0.05284201576755686, 0.10655875235003884, 0.029584213779719298, 0.07398770407531995, 1.5062934839482573e-07, -1.3138484195746413e-05, 0.03445792006362981, 0.06545238399770391, 0.04461859002758157, 0.25052132962863466],
        [1.952981437309065e-09, 0.07018436249187587, -7.120508652065772e-12, 0.04833442880635143, 0.06902543588191898, 0.03510095563746974, 0.0669866885006784, 0.020106834453922157, 0.04822820224346926, 6.8928508409889414e-09, 1.123579770190754e-12, 0.023376055685432794, 0.0428271842257228, 0.030099010430702563, 0.1452916201730694],
        [-1.632054744756821e-06, 0.14643602039050016, 8.317220748458366e-10, 0.09971841089302401, 0.14376727333738495, 0.07142954467681775, 0.14260839793277996, 0.039937228706849424, 0.09965376430920223, 8.20954873230968e-06, 2.79449445359638e-08, 0.04640417228460517, 0.08859292405745495, 0.05988877670971919, 0.3151379615204227],
        [7.2046329742178586e-12, 0.14928708116382514, -2.998145770411024e-11, 0.09990881249973946, 0.14546897725626984, 0.07102051787725731, 0.14442759411499997, 0.03941830770241261, 0.09985176090465654, -1.808021726331875e-05, 2.2654625070694841e-10, 0.045861523575757526, 0.08856259677925592, 0.05935350630288174, 0.33243409434468785],
        [-1.3393602861782836e-05, 0.11779506616233057, -6.559054787429744e-11, 0.08012525266032816, 0.11596340044056437, 0.057482709360354406, 0.11404734544369388, 0.032329435078602704, 0.08002205059381472, 3.2030600011179625e-13, -6.550281155540252e-11, 0.03759886296011487, 0.07100150020989712, 0.048552551244399354, 0.25591207136433275],
        [1.2502408643452314e-11, 0.072503014805177, -3.8067499313171406e-10, 0.04989878945357612, 0.07130550487889258, 0.03621561183143568, 0.06923883437450015, 0.020727078713297667, 0.04979129634751627, -1.7898659422472422e-11, 4.930571469960707e-10, 0.024097624268030096, 0.044212817429148614, 0.031032675738981656, 0.15057535062621163],
        [-1.182521641308369e-09, 0.00015900772792838846, 2.9742412940124466e-06, 1.770601354131942e-07, 2.2427538838282935e-11, -0.0001036930150632514, -1.613390234417317e-07, -6.987157067619153e-05, 5.486307517566036e-13, 2.24987925406451e-12, 3.56228552273529e-06, -7.428423772436627e-06, 9.335275763108096e-13, 0.00015690755131135352, 9.18852100685188e-12]
      ],
      [
        [-1.0453015555113964e-06, -2.19309074442071e-05, -9.649116628505964e-10, 2.5360336717018513e-12, 1.7538925748503996e-12, 1.9432362758531984e-10, -1.6833333195857315e-14, -3.9573313105840847e-08, 2.7701695317345714e-07, 1.2819166389631953e-13, 4.535432575754869e-12, -5.088722427083166e-13, 8.233511565049769e-06, 3.3006e-319, 4.567030279151697e-09],
        [-4.6151733382907164e-05, 0.09367704900795261, 0.21695932307391666, 0.17979029813623912, -4.8178864003362255e-11, 0.056944801023175694, 2.0041744213300737e-09, 1.4770745520197433e-10, 0.19418025443109663, 0.25309567444239245, 2.2171935006295318e-09, 0.24862153805762452, -1.840642704748134e-11, 6.013733634122034e-05, 7.996767631070209e-12],
        [1.7263004864548564e-11, -1.2816384941112029e-10, 1.469141979920661e-08, 2.7200677087003544e-12, 1.922124107272205e-12, 5.862923713104944e-12, -1.4627004680765082e-07, 4.254008222186686e-09, 1.5112676174738867e-11, 3.4961804613439e-11, -1.5239352192171638e-11, -3.4423563639005e-08, 0.00021680313231863102, -9.75743207188382e-13, 4.996369861975602e-12],
        [3.2393e-319, 0.06503238594567327, 0.1495312768571341, 0.12471612563050472, -1.4326183121328147e-11, 0.03952578348985833, -1.3177395601286656e-09, -4.5698691760819534e-10, 0.1350855000098956, 0.17463359797939376, -7.378179717778147e-10, 0.17175088164271482, 1.1658515924811714e-12, -0.00020960881724527632, 1.8480244891713318e-07],
        [5.121331014720581e-05, 0.09194057744479271, 0.21377563854248444, 0.1762435995117154, -1.764667406564591e-11, 0.055855021953717894, 1.5428706248942016e-07, -5.069336917356177e-08, 0.191973608084828, 0.24736864420450488, 4.926340826750039e-13, 0.2443664255599485, -8.876366589564512e-06, 3.815063423051299e-11, -5.774358116431423e-12],
        [-9.239208008780733e-11, 0.04878236249222611, 0.11082969649680112, 0.0927426642263149, 3.9966381109056983e-13, 0.029739347179633325, 3.3758740674297e-05, -3.4461803086062485e-11, 0.10033265095393357, 0.12881160786265247, -4.419608335322921e-06, 0.1265526640161671, 4.459632415082836e-07, -2.2717456711651565e-11, 3.788074872662817e-12],
        [-6.314363424638991e-10, 0.08529904935805362, 0.20194852533638097, 0.16780467930113988, -7.8902614874087e-09, 0.05141906688371267, 1.0986773939575408e-08, -6.136814695781897e-05, 0.18199068558801867, 0.240675268078378, -8.356366353131804e-09, 0.23130477262165616, -3.7317338151330506e-13, 2.7539826620672245e-12, -8.459730755005202e-10],
        [2.6958561100971617e-11, 0.03039338648735865, 0.0671734445099747, 0.056731055723783626, 3.3508902963645156e-12, 0.01865317314762226, 2.9724494638569814e-06, 4.9671751087485156e-09, 0.06114648657382621, 0.07753645621774469, -7.701844644651772e-07, 0.07621434800161869, 8.392087898031023e-11, -7.784905318679562e-08, 7.017298204657369e-08],
        [3.3016073999220875e-13, 0.06467596084137638, 0.14942974861363525, 0.12424819860885242, -4.765988117129731e-06, 0.03928347292893508, 3.859685496945614e-12, 3.060063391739477e-05, 0.1345821070057052, 0.1743716520818395, 2.8755388229285143e-11, 0.17050308251914537, -2.911891222651298e-10, 8.5768532217393e-09, -4.441378756117599e-11],
        [9.412031381692175e-11, 8.996211769776906e-10, -1.7129450460897597e-06, 2.3715036660150992e-06, 2.336887269186385e-10, -5.884499213332534e-07, 2.6957739532575835e-10, -7.176002039623334e-10, -2.0721666251042885e-11, -1.4554369730987563e-06, 8.480590526770209e-08, -7.299637453949974e-09, 2.4461391256136793e-08, -4.658077306572005e-06, 9.124909802412124e-11],
        [-6.587501674146717e-13, -2.3249548051411564e-11, -8.168910336972742e-08, -2.7446919147156873e-12, 6.219240671874668e-09, 1.9739676751000302e-08, 1.0167144823222641e-07, -1.5870152885404772e-12, 9.016643324581695e-10, 9.903727851682584e-09, -3.4939177650527424e-10, 5.125335348444517e-11, 5.936260941250995e-07, -6.742346146272374e-13, 1.0307729627077872e-10],
        [1.662613504939638e-05, 0.03495918773258904, 0.0771458847666541, 0.06517784317227027, 6.101449674889264e-13, 0.021466839782792572, -1.9197725445099428e-12, -7.770858234512985e-07, 0.07023973233930052, 0.0889675422305483, -8.154068597592023e-07, 0.08746262991284365, 1.0273942927992447e-09, -1.4199042382976736e-07, -2.13218220550539e-07],
        [-9.457412653237063e-13, 0.05731524890824792, 0.1325668950114535, 0.11025849190487283, -8.930763471048401e-06, 0.03478214296027347, -2.0607264274732463e-09, 5.954790814113029e-05, 0.11961600681320486, 0.15507505888145273, -1.2690957758171904e-10, 0.15195651565265125, -2.4185345853778677e-09, 2.695342023131258e-05, -3.9641575640755646e-06],
        [-1.5483573663564293e-11, 0.04415377926861521, 0.09756219663443426, 0.08237391584013842, 4.883384343570178e-11, 0.027111988461631334, -5.107750707350058e-13, 7.173365220453002e-13, 0.08879380446733919, 0.11246872256823272, 0.00012132088506448916, 0.11057599552694083, -2.2998894769744916e-05, -6.024743731113999e-06, -1.0979746740534738e-06],
        [5.584088576579263e-07, 0.19259225164164348, 0.45275886850355324, 0.3760288039283519, 1.286481531030424e-11, 0.11689046449815799, 5.986339330427343e-08, 7.647335336770369e-11, 0.4135960989266523, 0.530285377909463, -1.362556359091477e-12, 0.5320841515064548, 5.3975530560315385e-05, -2.6841869628853657e-09, -2.565116241021158e-06]
      ],
      [
        [1.2128342214129325e-09],
        [0.30749717462549075],
        [0.6881273646837508],
        [0.5788344120645542],
        [-6.800327985631697e-07],
        [0.18941073320871576],
        [2.4630106320170414e-12],
        [6.775460573552139e-13],
        [0.6248785962107561],
        [0.8005331244917502],
        [-6.237391547309382e-05],
        [0.7858809408363903],
        [2.9101598732786985e-09],
        [-7.879784481829808e-06],
        [8.891312924310936e-11]
      ]
    ],
    "split_point": 8.0
  },
  "objectives": [
      {
        "tag": "EE Position Control",
        "variant": "position_match",
        "indices": [0, 6]
      }, {
        "tag": "Gripper Orientation",
        "variant": "orientation_match",
        "indices": [0, 6]
      }, {
        "tag": "Mid-Arm Guidance",
        "variant": "position_match",
        "indices": [0, 2]
      }, {
        "tag": "General Smoothness",
        "variant": "macro_smoothness",
        "indices": []
      }, {
        "tag": "Joint Limits",
        "variant": "joint_limits",
        "indices": []
      }, {
        "tag": "Self-Collision",
        "variant": "nn_collision",
        "indices": []
      } 
    ],
  "states": [
    [
      [0, 0, 0],
      [0, 0, 0, 0, 0, 0]
    ],
    [
      [0, 0, 0],
      [3, 3, 1, 0, 1, 0]
    ],
    [
      [0, 0, 0],
      [1, -1, 2, 1, 0, 1]
    ]
  ],
  "robot_link_radius": 0.05,
  "rot_offsets": [
    [
      [0.0, 0.0, 0.0],
      [0.0, 1.57079632679, 0.0],
      [0.0, 0.0, 0.0],
      [0.0, 1.57079632679, 0.0],
      [0.0, 0.0, 0.0],
      [0.0, 0.0, 0.0],
      [0.0, 0.0, 1.57079632679]
    ]
  ],
  "starting_config": [
    [0.0, 0.0, 0.0],
    [0.0, 0.0, 0.0, 0.0, 0.0, 0.0]
  ],
  "urdf": "<?xml version=\"1.0\" ?><!-- =================================================================================== --><!-- |    This document was autogenerated by xacro from ./universal_robot/ur_e_description/urdf/ur3e_robot.urdf.xacro | --><!-- |    EDITING THIS FILE BY HAND IS NOT RECOMMENDED                                 | --><!-- =================================================================================== --><robot name=\"ur3e\" xmlns:xacro=\"http://ros.org/wiki/xacro\">  <gazebo>    <plugin filename=\"libgazebo_ros_control.so\" name=\"ros_control\">      <!--robotNamespace>/</robotNamespace-->      <!--robotSimType>gazebo_ros_control/DefaultRobotHWSim</robotSimType-->    </plugin>    <!--    <plugin name=\"gazebo_ros_power_monitor_controller\" filename=\"libgazebo_ros_power_monitor.so\">      <alwaysOn>true</alwaysOn>      <updateRate>1.0</updateRate>      <timeout>5</timeout>      <powerStateTopic>power_state</powerStateTopic>      <powerStateRate>10.0</powerStateRate>      <fullChargeCapacity>87.78</fullChargeCapacity>           <dischargeRate>-474</dischargeRate>      <chargeRate>525</chargeRate>      <dischargeVoltage>15.52</dischargeVoltage>      <chargeVoltage>16.41</chargeVoltage>    </plugin>-->  </gazebo>  <!--  Author: Felix Messmer-->  <!-- measured from model -->  <link name=\"base_link\">    <visual>      <geometry>        <mesh filename=\"package://ur_e_description/meshes/ur3e/visual/base.dae\"/>      </geometry>      <material name=\"LightGrey\">        <color rgba=\"0.7 0.7 0.7 1.0\"/>      </material>    </visual>    <collision>      <geometry>        <mesh filename=\"package://ur_e_description/meshes/ur3e/collision/base.stl\"/>      </geometry>    </collision>    <inertial>      <mass value=\"2.0\"/>      <origin rpy=\"0 0 0\" xyz=\"0.0 0.0 0.0\"/>      <inertia ixx=\"0.0030531654454\" ixy=\"0.0\" ixz=\"0.0\" iyy=\"0.0030531654454\" iyz=\"0.0\" izz=\"0.005625\"/>    </inertial>  </link>  <joint name=\"shoulder_pan_joint\" type=\"revolute\">    <parent link=\"base_link\"/>    <child link=\"shoulder_link\"/>    <origin rpy=\"0.0 0.0 0.0\" xyz=\"0.0 0.0 0.152\"/>    <axis xyz=\"0 0 1\"/>    <limit effort=\"330.0\" lower=\"-6.28318530718\" upper=\"6.28318530718\" velocity=\"3.14\"/>    <dynamics damping=\"0.0\" friction=\"0.0\"/>  </joint>  <link name=\"shoulder_link\">    <visual>      <geometry>        <mesh filename=\"package://ur_e_description/meshes/ur3e/visual/shoulder.dae\"/>      </geometry>      <material name=\"LightGrey\">        <color rgba=\"0.7 0.7 0.7 1.0\"/>      </material>    </visual>    <collision>      <geometry>        <mesh filename=\"package://ur_e_description/meshes/ur3e/collision/shoulder.stl\"/>      </geometry>    </collision>    <inertial>      <mass value=\"2.0\"/>      <origin rpy=\"0 0 0\" xyz=\"0.0 0.0 0.0\"/>      <inertia ixx=\"0.0080931634294\" ixy=\"0.0\" ixz=\"0.0\" iyy=\"0.0080931634294\" iyz=\"0.0\" izz=\"0.005625\"/>    </inertial>  </link>  <joint name=\"shoulder_lift_joint\" type=\"revolute\">    <parent link=\"shoulder_link\"/>    <child link=\"upper_arm_link\"/>    <origin rpy=\"0.0 1.57079632679 0.0\" xyz=\"0.0 0.12 0.0\"/>    <axis xyz=\"0 1 0\"/>    <limit effort=\"330.0\" lower=\"-6.28318530718\" upper=\"6.28318530718\" velocity=\"3.14\"/>    <dynamics damping=\"0.0\" friction=\"0.0\"/>  </joint>  <link name=\"upper_arm_link\">    <visual>      <geometry>        <mesh filename=\"package://ur_e_description/meshes/ur3e/visual/upperarm.dae\"/>      </geometry>      <material name=\"LightGrey\">        <color rgba=\"0.7 0.7 0.7 1.0\"/>      </material>    </visual>    <collision>      <geometry>        <mesh filename=\"package://ur_e_description/meshes/ur3e/collision/upperarm.stl\"/>      </geometry>    </collision>    <inertial>      <mass value=\"3.42\"/>      <origin rpy=\"0 0 0\" xyz=\"0.0 0.0 0.122\"/>      <inertia ixx=\"0.0217771262891\" ixy=\"0.0\" ixz=\"0.0\" iyy=\"0.0217771262891\" iyz=\"0.0\" izz=\"0.00961875\"/>    </inertial>  </link>  <joint name=\"elbow_joint\" type=\"revolute\">    <parent link=\"upper_arm_link\"/>    <child link=\"forearm_link\"/>    <origin rpy=\"0.0 0.0 0.0\" xyz=\"0.0 -0.093 0.244\"/>    <axis xyz=\"0 1 0\"/>    <limit effort=\"150.0\" lower=\"-3.14159265359\" upper=\"3.14159265359\" velocity=\"3.14\"/>    <dynamics damping=\"0.0\" friction=\"0.0\"/>  </joint>  <link name=\"forearm_link\">    <visual>      <geometry>        <mesh filename=\"package://ur_e_description/meshes/ur3e/visual/forearm.dae\"/>      </geometry>      <material name=\"LightGrey\">        <color rgba=\"0.7 0.7 0.7 1.0\"/>      </material>    </visual>    <collision>      <geometry>        <mesh filename=\"package://ur_e_description/meshes/ur3e/collision/forearm.stl\"/>      </geometry>    </collision>    <inertial>      <mass value=\"1.26\"/>      <origin rpy=\"0 0 0\" xyz=\"0.0 0.0 0.1065\"/>      <inertia ixx=\"0.00653561738575\" ixy=\"0.0\" ixz=\"0.0\" iyy=\"0.00653561738575\" iyz=\"0.0\" izz=\"0.00354375\"/>    </inertial>  </link>  <joint name=\"wrist_1_joint\" type=\"revolute\">    <parent link=\"forearm_link\"/>    <child link=\"wrist_1_link\"/>    <origin rpy=\"0.0 1.57079632679 0.0\" xyz=\"0.0 0.0 0.213\"/>    <axis xyz=\"0 1 0\"/>    <limit effort=\"54.0\" lower=\"-6.28318530718\" upper=\"6.28318530718\" velocity=\"6.28\"/>    <dynamics damping=\"0.0\" friction=\"0.0\"/>  </joint>  <link name=\"wrist_1_link\">    <visual>      <geometry>        <mesh filename=\"package://ur_e_description/meshes/ur3e/visual/wrist1.dae\"/>      </geometry>      <material name=\"LightGrey\">        <color rgba=\"0.7 0.7 0.7 1.0\"/>      </material>    </visual>    <collision>      <geometry>        <mesh filename=\"package://ur_e_description/meshes/ur3e/collision/wrist1.stl\"/>      </geometry>    </collision>    <inertial>      <mass value=\"0.8\"/>      <origin rpy=\"0 0 0\" xyz=\"0.0 0.0 0.0\"/>      <inertia ixx=\"0.002084999166\" ixy=\"0.0\" ixz=\"0.0\" iyy=\"0.002084999166\" iyz=\"0.0\" izz=\"0.00225\"/>    </inertial>  </link>  <joint name=\"wrist_2_joint\" type=\"revolute\">    <parent link=\"wrist_1_link\"/>    <child link=\"wrist_2_link\"/>    <origin rpy=\"0.0 0.0 0.0\" xyz=\"0.0 0.104 0.0\"/>    <axis xyz=\"0 0 1\"/>    <limit effort=\"54.0\" lower=\"-6.28318530718\" upper=\"6.28318530718\" velocity=\"6.28\"/>    <dynamics damping=\"0.0\" friction=\"0.0\"/>  </joint>  <link name=\"wrist_2_link\">    <visual>      <geometry>        <mesh filename=\"package://ur_e_description/meshes/ur3e/visual/wrist2.dae\"/>      </geometry>      <material name=\"LightGrey\">        <color rgba=\"0.7 0.7 0.7 1.0\"/>      </material>    </visual>    <collision>      <geometry>        <mesh filename=\"package://ur_e_description/meshes/ur3e/collision/wrist2.stl\"/>      </geometry>    </collision>    <inertial>      <mass value=\"0.8\"/>      <origin rpy=\"0 0 0\" xyz=\"0.0 0.0 0.0\"/>      <inertia ixx=\"0.002084999166\" ixy=\"0.0\" ixz=\"0.0\" iyy=\"0.002084999166\" iyz=\"0.0\" izz=\"0.00225\"/>    </inertial>  </link>  <joint name=\"wrist_3_joint\" type=\"revolute\">    <parent link=\"wrist_2_link\"/>    <child link=\"wrist_3_link\"/>    <origin rpy=\"0.0 0.0 0.0\" xyz=\"0.0 0.0 0.085\"/>    <axis xyz=\"0 1 0\"/>    <limit effort=\"54.0\" lower=\"-6.28318530718\" upper=\"6.28318530718\" velocity=\"6.28\"/>    <dynamics damping=\"0.0\" friction=\"0.0\"/>  </joint>  <link name=\"wrist_3_link\">    <visual>      <geometry>        <mesh filename=\"package://ur_e_description/meshes/ur3e/visual/wrist3.dae\"/>      </geometry>      <material name=\"LightGrey\">        <color rgba=\"0.7 0.7 0.7 1.0\"/>      </material>    </visual>    <collision>      <geometry>        <mesh filename=\"package://ur_e_description/meshes/ur3e/collision/wrist3.stl\"/>      </geometry>    </collision>    <inertial>      <mass value=\"0.35\"/>      <origin rpy=\"0 0 0\" xyz=\"0.0 0.0 0.0\"/>      <inertia ixx=\"0.000912187135125\" ixy=\"0.0\" ixz=\"0.0\" iyy=\"0.000912187135125\" iyz=\"0.0\" izz=\"0.000984375\"/>    </inertial>  </link>  <joint name=\"ee_fixed_joint\" type=\"fixed\">    <parent link=\"wrist_3_link\"/>    <child link=\"ee_link\"/>    <origin rpy=\"0.0 0.0 1.57079632679\" xyz=\"0.0 0.092 0.0\"/>  </joint>  <link name=\"ee_link\">    <collision>      <geometry>        <box size=\"0.01 0.01 0.01\"/>      </geometry>      <origin rpy=\"0 0 0\" xyz=\"-0.01 0 0\"/>    </collision>  </link>  <transmission name=\"shoulder_pan_trans\">    <type>transmission_interface/SimpleTransmission</type>    <joint name=\"shoulder_pan_joint\">      <hardwareInterface>hardware_interface/PositionJointInterface</hardwareInterface>    </joint>    <actuator name=\"shoulder_pan_motor\">      <mechanicalReduction>1</mechanicalReduction>    </actuator>  </transmission>  <transmission name=\"shoulder_lift_trans\">    <type>transmission_interface/SimpleTransmission</type>    <joint name=\"shoulder_lift_joint\">      <hardwareInterface>hardware_interface/PositionJointInterface</hardwareInterface>    </joint>    <actuator name=\"shoulder_lift_motor\">      <mechanicalReduction>1</mechanicalReduction>    </actuator>  </transmission>  <transmission name=\"elbow_trans\">    <type>transmission_interface/SimpleTransmission</type>    <joint name=\"elbow_joint\">      <hardwareInterface>hardware_interface/PositionJointInterface</hardwareInterface>    </joint>    <actuator name=\"elbow_motor\">      <mechanicalReduction>1</mechanicalReduction>    </actuator>  </transmission>  <transmission name=\"wrist_1_trans\">    <type>transmission_interface/SimpleTransmission</type>    <joint name=\"wrist_1_joint\">      <hardwareInterface>hardware_interface/PositionJointInterface</hardwareInterface>    </joint>    <actuator name=\"wrist_1_motor\">      <mechanicalReduction>1</mechanicalReduction>    </actuator>  </transmission>  <transmission name=\"wrist_2_trans\">    <type>transmission_interface/SimpleTransmission</type>    <joint name=\"wrist_2_joint\">      <hardwareInterface>hardware_interface/PositionJointInterface</hardwareInterface>    </joint>    <actuator name=\"wrist_2_motor\">      <mechanicalReduction>1</mechanicalReduction>    </actuator>  </transmission>  <transmission name=\"wrist_3_trans\">    <type>transmission_interface/SimpleTransmission</type>    <joint name=\"wrist_3_joint\">      <hardwareInterface>hardware_interface/PositionJointInterface</hardwareInterface>    </joint>    <actuator name=\"wrist_3_motor\">      <mechanicalReduction>1</mechanicalReduction>    </actuator>  </transmission>  <gazebo reference=\"shoulder_link\">    <selfCollide>true</selfCollide>  </gazebo>  <gazebo reference=\"upper_arm_link\">    <selfCollide>true</selfCollide>  </gazebo>  <gazebo reference=\"forearm_link\">    <selfCollide>true</selfCollide>  </gazebo>  <gazebo reference=\"wrist_1_link\">    <selfCollide>true</selfCollide>  </gazebo>  <gazebo reference=\"wrist_3_link\">    <selfCollide>true</selfCollide>  </gazebo>  <gazebo reference=\"wrist_2_link\">    <selfCollide>true</selfCollide>  </gazebo>  <gazebo reference=\"ee_link\">    <selfCollide>true</selfCollide>  </gazebo>  <!-- ROS base_link to UR 'Base' Coordinates transform -->  <link name=\"base\"/>  <joint name=\"base_link-base_fixed_joint\" type=\"fixed\">    <!-- NOTE: this rotation is only needed as long as base_link itself is                 not corrected wrt the real robot (ie: rotated over 180                 degrees)      -->    <origin rpy=\"0 0 -3.14159265359\" xyz=\"0 0 0\"/>    <parent link=\"base_link\"/>    <child link=\"base\"/>  </joint>  <!-- Frame coincident with all-zeros TCP on UR controller -->  <link name=\"tool0\"/>  <joint name=\"wrist_3_link-tool0_fixed_joint\" type=\"fixed\">    <origin rpy=\"-1.57079632679 0 0\" xyz=\"0 0.092 0\"/>    <parent link=\"wrist_3_link\"/>    <child link=\"tool0\"/>  </joint>  <link name=\"world\"/>  <joint name=\"world_joint\" type=\"fixed\">    <parent link=\"world\"/>    <child link=\"base_link\"/>    <origin rpy=\"0.0 0.0 0.0\" xyz=\"0.0 0.0 0.0\"/>  </joint></robot>",
  "velocity_limits": [3.14, 3.14, 3.14, 6.28, 6.28, 6.28],
  "disp_offsets": [
    [0.0, 0.0, 0.152]
  ],
  "displacements": [
    [
      [0.0, 0.12, 0.0],
      [0.0, -0.093, 0.244],
      [0.0, 0.0, 0.213],
      [0.0, 0.104, 0.0],
      [0.0, 0.0, 0.085],
      [0.0, 0.092, 0.0]
    ]
  ]
}